topics/physics.txt	0.744459	0.474961	0.906665	0.592093	0.0805586	0.21628	0.960672	-0.339509	0.334456	1.20036	0.81584	0.238389	-0.146492	0.964075	-0.578042	0.341831	0.313028	0.734654	-0.735041	-0.527839	0.265487	-0.727103	0.3934	-0.162961	0.139289	-0.239865	0.140485	0.0727774	-0.00779017	0.577802	0.580216	-0.587693	-0.411112	-0.636885	0.0638252	-0.504166	-0.0484692	0.243304	0.410713	0.746652	0.286026	-0.179937	-0.558234	0.508516	0.335723	-0.258404	0.530871	0.07302	-0.0482118	-0.112398
proton	1.3538	0.45739	1.7245	1.1506	0.28336	0.1183	0.77116	-0.52147	0.077814	1.3509	1.79	0.15357	-1.1799	0.76619	-0.46428	1.2494	-0.25908	1.6357	-0.67237	-0.18355	0.32808	-0.51696	-0.32574	-0.40726	-0.32659	-0.17833	0.53983	0.073299	-0.48303	0.95459	0.73043	0.60707	-0.14065	0.68626	0.15897	-0.33126	0.24806	0.21801	-0.026579	0.40857	0.34838	-0.54025	-0.95278	0.0073359	1.0352	-0.82223	-0.0398	0.38664	0.26652	-0.57474
neutron	0.5755	1.0056	1.5079	-0.13799	0.23879	0.70112	0.74417	-0.2006	0.83568	1.5638	0.82437	0.091343	0.17625	1.8179	-0.70548	0.66218	0.75908	0.45785	-0.9569	-0.4965	-0.10042	-0.34193	0.72081	-0.21327	0.33259	0.30852	0.18981	0.33918	0.6543	0.78063	0.51419	-1.0256	-0.43583	-1.0121	0.55013	0.68561	0.43204	0.032534	0.59089	0.87924	0.35536	0.70427	-1.3676	-0.11307	0.69342	-0.14802	0.98199	0.30353	-0.7467	-0.15469
electron	1.1658	0.30361	1.783	0.51786	0.75527	0.82576	2.0967	-0.3083	-0.044606	1.5747	1.1862	-0.16842	0.22782	1.2434	-1.4794	0.55848	-0.21645	0.66614	-1.5236	-1.0513	1.2238	-0.54034	0.19478	-0.45298	0.042204	-0.31201	0.17892	-0.26871	-0.60788	-0.087012	1.1539	-0.38444	0.1692	-1.026	-0.0077172	-1.2197	0.75239	0.12542	0.20381	0.5145	0.53583	-0.31386	-0.41705	0.98646	0.3244	-0.89517	0.79843	-0.41032	-0.062033	-0.18925
neutrino	0.92653	0.5579	-0.17588	0.66197	-0.70743	0.33127	0.93359	-0.022404	1.1312	1.0935	1.1001	-0.38619	1.033	1.3261	-0.63968	0.10393	0.13874	0.88197	-1.5185	-0.65725	-0.48338	-1.0488	0.28456	0.029396	0.85352	-0.0329	-0.25319	0.36612	-0.21899	0.16644	-0.53253	-0.087974	-0.60241	-0.99426	-0.22265	-0.69635	0.37446	0.70137	0.98232	1.643	-0.41847	-0.04469	-0.79524	1.4773	0.5433	-0.22755	0.9817	0.12677	-0.14859	-0.044328
quark	0.82338	0.837	0.24539	0.78914	0.080415	-0.043555	0.41188	0.042774	-0.36815	0.83514	0.22721	0.42644	-0.46526	0.87813	-0.3233	-0.22382	-0.05608	0.81728	-0.76811	-1.1911	0.0087891	-0.31062	1.0232	0.72034	-0.11513	0.40808	-0.83795	0.3027	0.091544	0.85822	-0.59672	-0.747	-0.71608	0.039627	0.66069	-0.54572	-1.31	0.4819	0.51146	-0.25948	1.1305	-0.76786	-0.51396	1.1393	0.09025	-0.32673	1.2804	-0.36762	0.32065	-0.69382
muon	0.56674	-0.10625	0.49441	0.60618	-0.23872	0.2548	1.1874	-0.41486	1.4839	1.7949	1.0012	-0.073211	0.86174	2.1165	-0.48998	-0.25163	-0.078631	0.61603	-0.42709	-0.28172	-0.52296	-1.3521	0.82728	0.262	0.70248	0.072237	0.41761	0.26047	-0.6252	0.037707	-0.86728	-0.035539	-0.5182	-0.27301	-0.2977	-0.74763	0.23047	0.29884	0.012235	1.2105	-0.65343	0.11972	-0.867	0.87938	0.14757	-0.49965	0.35495	-0.7889	0.22789	-0.4162
meson	0.95476	0.042152	-0.34875	0.74607	0.24776	-0.80294	1.506	-0.2827	0.45939	1.6257	0.21172	0.86011	-0.66163	0.38926	-0.69481	-0.4473	0.26032	0.57309	-0.39543	0.72663	-0.91714	-0.61254	0.57079	0.27364	-0.87413	0.60211	0.63272	0.37229	0.026344	0.68922	-0.469	-0.93561	0.034688	-0.0201	0.1255	0.17981	-0.2748	0.32892	0.94137	0.78677	0.71034	-0.16452	-0.70944	1.0871	-0.27016	0.28818	0.39233	-0.42523	0.41447	0.36455
boson	0.64549	0.43758	1.2415	-0.20474	0.89788	-0.26618	0.28761	-1.0538	0.57988	0.5543	-0.042604	0.52478	-1.1236	0.27994	-0.28473	0.32187	1.111	-0.21361	-0.9812	-0.80912	-0.19437	-1.5079	0.40994	0.56915	-0.12437	0.27476	0.4848	-0.11374	0.12375	0.89625	-1.0935	-1.5672	-0.52527	-0.95532	0.54016	-1.6019	0.14092	-0.84215	-0.14107	1.0246	0.46205	-0.94024	-0.95176	1.0362	1.2694	-0.6203	0.63146	-0.7225	0.29626	0.41968
energy	0.068807	0.36938	1.0194	0.72622	0.33166	-0.11674	0.0519	-0.6263	0.69984	1.1034	0.88412	0.61662	0.06318	0.52554	-0.60775	0.58884	0.86194	0.73354	-0.27098	-1.1423	1.231	-0.38583	0.16454	-1.2052	0.081969	-1.1499	0.34174	0.16186	0.46667	1.2949	3.2169	0.25992	-0.19911	-0.86953	-0.43616	-0.7124	-1.0666	0.37666	1.222	0.49324	-0.11295	0.31521	-0.073187	-0.56738	-0.21031	0.75698	-0.53484	0.86998	0.023162	0.49219
nuclear	0.58108	0.66825	1.0771	0.34879	-0.34613	0.20463	0.78436	0.11287	0.77594	0.43579	0.18566	-0.20375	-0.53369	0.55578	-0.099609	1.1739	0.83277	1.2848	-0.19772	0.41573	1.1255	-0.31634	0.22493	-1.0348	0.28462	-2.7709	0.80654	0.24704	0.64272	0.41439	2.4058	-1.1552	-1.3758	-0.90799	0.20109	-0.29947	0.10769	0.29975	-0.94256	0.26281	-0.17048	-1.1831	0.99454	-0.50074	1.0424	0.8123	-0.20606	1.9433	-1.2817	-0.49774
ion	0.86015	0.97526	1.8838	0.76662	-0.66205	0.71453	1.7028	0.17846	-1.3807	1.3071	1.5096	0.16913	0.42233	0.66916	-0.73155	-0.016123	-0.14876	1.1084	-0.20503	-0.58949	0.55854	-1.0771	0.94995	-0.028311	-0.14963	-0.057773	0.34439	-0.12496	-0.36509	0.8127	1.0916	-0.40304	-0.24614	-1.1973	-0.29586	0.35822	0.24865	0.70019	0.59334	0.49608	1.2426	0.86966	-0.78135	-1.172	0.50111	-1.0162	0.021788	-0.55317	0.49329	0.16569
quantum	0.41147	0.15166	0.42761	1.1344	0.085898	0.67437	1.0505	-0.97778	-0.23671	1.1651	0.91251	0.85025	-0.57815	1.001	-0.41593	0.38224	0.55149	0.25466	-0.90356	-1.0741	0.92841	-0.71477	-0.32424	-0.46824	0.96393	-0.04227	-1.1594	-0.74222	0.20138	0.11559	1.4088	-1.5777	-0.37774	-1.1129	-0.21055	-1.1192	-0.46491	0.1982	0.98134	1.5	0.002585	-0.21358	-0.26398	1.8423	-1.1379	-0.40246	1.7081	0.51376	-0.38176	-0.22012
topics/biology.txt	1.14697	0.133033	0.215187	0.516279	0.753478	0.998151	0.805701	-0.720708	1.40186	0.400416	0.928952	-0.0938866	0.497838	0.558413	-0.298321	0.593463	0.0119545	-0.158649	0.154623	0.262524	-0.159758	-0.862101	1.02988	0.159087	0.0440273	-0.263644	-0.112443	-0.0560341	0.385549	-0.202285	1.43547	-0.680703	0.00422857	-1.28475	-0.0354869	0.137261	-0.03683	0.689955	0.464948	0.598597	-0.0169939	-0.653911	0.00682288	0.550952	0.695134	0.344873	0.880048	-0.357972	-0.165408	-0.0226705
cell	1.4761	0.42424	1.4387	0.5277	0.68466	1.0248	0.42836	-0.43636	0.93776	0.4999	0.76628	-0.6257	0.11867	0.76455	-0.41856	0.80716	-1.145	-0.075398	0.47328	0.16632	0.25749	-0.41617	0.45851	0.65778	-0.47289	-1.4163	0.4418	-0.25573	0.35258	-0.2884	2.5676	-0.31983	-0.44509	-1.2688	-0.073922	0.001126	0.35743	0.44641	0.26805	0.38776	0.44051	-0.26319	-0.48449	0.78691	1.4343	-0.34328	0.60773	-0.9809	-0.47391	-0.0090641
bacteria	1.8136	-0.98021	0.045116	-0.054527	0.25901	0.78756	1.3212	-0.29285	1.5247	0.70072	0.45972	0.2664	1.2711	0.17532	-0.0048449	0.169	0.10865	-0.41522	-0.41345	-0.43295	-0.64414	-1.5182	2.6311	0.1047	0.39087	-0.62217	-0.12432	-0.047487	1.1417	0.31804	1.3707	-0.93411	-0.092423	-1.3615	-0.43151	-0.17843	0.01576	0.85686	0.66361	0.862	-0.23196	-0.76041	0.59664	1.2635	2.1353	1.3886	-0.23674	-1.4089	0.27016	0.14336
biology	-0.32519	1.0813	-0.73782	0.087665	0.22888	0.6475	0.13426	-1.5758	0.51152	-0.087914	0.93531	0.20949	0.3495	0.2051	-0.45107	0.13479	-0.19415	0.86683	-0.28273	0.77492	-0.032939	0.0015082	0.59856	0.027327	0.62912	-0.92576	-0.32665	-1.0078	-0.70243	-0.043362	1.7215	-1.0031	-0.41169	-2.1112	0.10656	0.20487	-0.85575	1.4078	1.6879	0.71521	-0.31717	-1.1002	0.483	1.2608	0.68829	0.53763	1.9542	0.44175	-0.3014	0.39389
biodiversity	0.39612	0.64807	-0.6504	0.78784	0.19231	-0.67079	-0.13463	-1.4594	2.2237	-0.05103	0.29842	0.28128	1.1389	-0.43925	-0.29157	0.4362	1.6484	-0.27968	-0.29519	0.46714	-0.60553	-0.64908	-0.050627	-1.0734	0.34129	0.63703	-0.031827	-0.27396	0.29665	0.95172	1.3854	0.056474	-0.26698	-1.9747	-0.79063	0.11139	-0.74292	-0.31011	0.18297	-0.15264	-1.0165	-1.0273	0.68283	-0.11051	-0.02443	0.90431	-0.12231	0.53747	0.65932	0.20772
membrane	1.3573	0.66721	0.3124	0.86606	0.41474	0.98999	2.2146	-0.074692	1.5298	0.21862	1.3858	-0.088649	-0.080556	1.5948	-1.1146	1.7158	0.32514	-0.19045	0.50429	0.109	0.85512	-0.74819	1.0883	0.56333	-0.65976	0.15857	0.6389	1.1886	0.74193	0.020334	1.5413	-0.45279	0.90534	-0.90656	-0.58774	0.57343	0.35929	0.64731	0.17889	1.0352	0.92451	0.016628	-0.36227	0.4313	0.37275	-0.13814	1.2857	-1.1118	-0.53211	-0.55848
chloroplast	1.4249	0.32407	0.51643	0.58162	0.7936	1.2049	0.53323	-0.14088	1.2769	-0.11431	1.0032	-0.32328	0.56765	0.74122	-0.62655	0.61882	0.021887	-0.62169	0.65298	0.80604	-0.31475	-1.394	0.53299	-0.062273	-0.357	0.55311	-0.67404	0.41742	0.28448	-1.5107	-0.60391	-0.44356	0.72658	-0.68939	-0.37321	0.26551	-0.37561	0.54229	-0.22311	0.20912	0.42893	-0.87014	-0.054434	-0.10281	-0.026932	-0.055157	1.3179	-0.4613	-1.1724	-0.69841
dna	1.5254	-0.62415	0.46343	0.86997	1.0652	1.6919	0.36667	-0.18018	1.7664	0.68529	0.93934	-0.59654	-0.012565	0.19657	0.57104	0.48641	-0.28174	-1.2343	0.47888	-0.24682	-0.086103	-0.52538	0.81786	0.23602	-0.031694	-0.9552	-0.83327	-0.43082	-0.29061	-1.5646	1.8458	-1.7926	-0.27685	-1.1984	1.0755	0.20317	0.50459	0.82424	0.38877	0.29694	0.12745	-0.33873	0.24523	0.51359	0.66725	-0.48271	1.5093	0.16717	-0.50899	-0.66316
protein	1.0105	0.20162	0.74268	0.67632	1.7799	1.7606	1.5616	-1.3663	1.5361	1.0018	1.0947	-0.13998	0.1694	0.90419	-0.4675	0.71016	-0.40165	0.14637	0.16859	0.57705	0.18143	-1.4972	2.6346	0.80667	-0.39974	0.23169	0.11142	0.21533	0.83184	-0.21805	1.9804	-0.2726	0.20391	-0.60179	1.098	-0.015921	0.52545	1.1012	0.76725	1.7808	-0.021315	-0.68267	-0.82121	0.086806	0.57399	0.79363	0.70141	0.24996	0.55307	0.62865
organism	1.644	-0.54485	-0.19385	0.30386	1.363	1.5469	0.82602	-0.95991	1.3099	0.75067	1.4778	0.172	0.95844	0.88322	0.11877	0.26283	0.026054	0.3757	0.10496	0.14202	-1.0484	-1.0122	0.55762	0.17163	0.95605	-0.033763	-0.214	-0.30986	0.8138	0.51445	1.1104	-0.96421	-0.30474	-1.4504	-0.34243	0.070201	-0.11971	0.69359	0.2702	0.25298	-0.4874	-0.85919	-0.22389	0.82898	0.43569	0.49897	0.90324	-0.6552	0.017589	0.35146
topics/chemistry.txt	0.769093	0.529707	0.537338	-0.083299	0.157976	0.916825	0.978805	-0.328394	-0.0279122	1.52347	1.07196	0.267882	0.222647	0.731425	-0.518915	0.604202	0.461564	0.44503	-0.508238	-0.708193	0.488575	-0.641704	0.536152	-0.039453	-0.513189	0.013857	0.527538	0.5389	0.451114	0.587064	1.2449	-0.513124	0.0566878	-0.511114	0.534186	0.00489026	0.13034	-0.223514	0.527845	0.625523	0.419052	-0.250007	-0.119982	0.157551	0.584397	-0.372514	0.386895	0.253739	0.21576	-0.406649
acid	0.9009	-0.60531	-0.66085	-0.6966	-0.33301	1.5834	1.4175	-0.13336	0.75595	1.9965	1.0266	0.27829	0.22465	-0.73563	-0.68329	0.61814	1.1697	0.087963	0.018513	-0.87816	0.19583	-0.29492	2.1029	0.55538	-0.59372	0.1515	0.089391	0.90357	0.13015	0.35314	2.4369	-1.2839	0.29306	-0.1389	1.7339	0.24735	0.40881	-0.89665	1.4681	0.57123	0.47125	-0.23574	-0.5416	-0.55583	1.1156	0.24911	0.73782	-0.050326	0.65584	-0.38483
proton	1.3538	0.45739	1.7245	1.1506	0.28336	0.1183	0.77116	-0.52147	0.077814	1.3509	1.79	0.15357	-1.1799	0.76619	-0.46428	1.2494	-0.25908	1.6357	-0.67237	-0.18355	0.32808	-0.51696	-0.32574	-0.40726	-0.32659	-0.17833	0.53983	0.073299	-0.48303	0.95459	0.73043	0.60707	-0.14065	0.68626	0.15897	-0.33126	0.24806	0.21801	-0.026579	0.40857	0.34838	-0.54025	-0.95278	0.0073359	1.0352	-0.82223	-0.0398	0.38664	0.26652	-0.57474
neutron	0.5755	1.0056	1.5079	-0.13799	0.23879	0.70112	0.74417	-0.2006	0.83568	1.5638	0.82437	0.091343	0.17625	1.8179	-0.70548	0.66218	0.75908	0.45785	-0.9569	-0.4965	-0.10042	-0.34193	0.72081	-0.21327	0.33259	0.30852	0.18981	0.33918	0.6543	0.78063	0.51419	-1.0256	-0.43583	-1.0121	0.55013	0.68561	0.43204	0.032534	0.59089	0.87924	0.35536	0.70427	-1.3676	-0.11307	0.69342	-0.14802	0.98199	0.30353	-0.7467	-0.15469
electron	1.1658	0.30361	1.783	0.51786	0.75527	0.82576	2.0967	-0.3083	-0.044606	1.5747	1.1862	-0.16842	0.22782	1.2434	-1.4794	0.55848	-0.21645	0.66614	-1.5236	-1.0513	1.2238	-0.54034	0.19478	-0.45298	0.042204	-0.31201	0.17892	-0.26871	-0.60788	-0.087012	1.1539	-0.38444	0.1692	-1.026	-0.0077172	-1.2197	0.75239	0.12542	0.20381	0.5145	0.53583	-0.31386	-0.41705	0.98646	0.3244	-0.89517	0.79843	-0.41032	-0.062033	-0.18925
phenol	1.1008	-0.7184	-0.6936	-0.1325	-0.40785	0.43114	0.70734	-0.58346	-0.33144	1.5857	1.3897	0.24933	0.47632	-0.44617	0.019067	0.23824	0.67019	0.20857	-0.38079	-0.27251	0.019509	-0.60011	0.12217	0.10243	-1.1134	0.90403	0.60139	1.2982	0.5715	0.032922	0.0033676	-0.78589	0.076038	0.00033513	0.34185	0.62556	0.24043	-0.60511	0.84714	0.60394	0.99499	-0.10928	0.4226	-0.58132	0.90822	-0.14586	0.21377	1.0498	0.91019	-0.82957
alcohol	-0.55204	-0.27756	-0.77571	-0.7338	-0.31033	1.3552	0.094901	-0.50057	1.3001	1.6229	0.9734	-0.34555	0.56112	-0.75714	1.1654	0.291	-0.71868	0.3652	-0.097133	-0.88939	0.76108	0.41079	1.0503	0.89865	-0.89094	-1.4978	0.63349	0.21739	1.2996	0.60376	2.0146	0.5042	-0.41384	-0.75703	0.61193	-0.095683	-0.16715	0.0073518	1.0113	0.96521	-0.011456	0.41148	0.3263	1.1399	0.67236	-0.38587	-0.37075	0.14582	0.74933	-0.051442
covalent	0.89198	1.5832	-0.15951	0.4926	1.0496	1.7122	0.86112	0.23593	-1.354	1.5411	0.92211	1.183	0.13172	1.9099	-0.86308	0.57286	0.8288	-0.60306	-0.19702	0.24118	0.3918	-1.1608	-0.40125	0.16145	-1.0154	0.80624	1.5574	0.10721	0.99412	0.29351	0.52499	-1.0718	0.75958	-0.3814	0.75615	-0.3167	-0.71355	-0.83475	-0.023727	0.45878	-0.14223	-0.9691	0.29999	1.01	0.35191	-1.7448	1.0451	0.54238	-0.15064	-0.0013189
ionic	0.79803	1.7658	-0.41375	-0.30822	0.83521	-0.037172	1.4822	0.19763	-1.837	0.60374	0.31567	1.1292	0.87373	1.0997	-1.5678	0.08686	0.26409	-0.20068	-0.52356	-1.0603	0.15434	-0.9995	-0.14313	-0.3903	-0.64639	0.82497	0.96739	0.96444	0.2378	1.1582	1.4087	-0.41265	1.0692	-0.2121	0.14074	0.64046	-0.27831	-0.71905	-0.28109	0.97529	1.4455	0.031561	0.058804	0.74873	0.044132	-0.20731	0.32831	0.5717	-0.17718	-1.0433
carbon	0.17686	0.87444	1.2914	-0.6437	-0.39458	1.0035	0.87036	-1.3345	0.7867	1.2488	0.85351	0.0091923	0.39408	1.0672	0.066767	0.89117	1.3838	0.38502	-0.10261	-1.3723	0.81683	-1.4755	0.83518	-0.81497	-0.70624	-0.66065	0.15819	0.85705	0.55978	0.6783	2.0496	-0.72016	-0.38198	-1.1333	0.14834	-0.17904	0.31626	0.26273	0.83067	0.265	-0.555	-0.78036	1.1623	-0.41912	0.22041	0.22503	-0.097236	-0.35889	0.36076	-0.31111
hydrogen	1.2793	0.9083	1.77	-0.34124	-0.1367	1.4748	0.7426	-0.13524	-0.46832	2.1466	1.438	0.09886	0.34068	1.3489	-0.67705	0.87369	0.73419	1.4476	-0.64691	-1.1191	1.0949	-0.89777	1.2055	0.16634	-0.214	-0.2079	0.35957	0.89737	1.1548	1.1026	1.6123	-0.55807	-0.4279	-1.1369	0.90757	-0.0076944	0.064419	0.17437	0.65794	0.61347	0.7479	-0.69879	-0.19078	-0.64758	0.47832	0.14998	0.27132	0.35706	0.35151	-0.52624
topics/biochemistry.txt	0.913356	-0.065358	0.256394	0.136807	0.647683	0.977623	1.28944	-0.36878	1.28923	1.03548	1.25708	-0.201184	0.140749	0.608752	-0.53091	0.650931	0.0343263	0.13271	0.0825209	-0.207612	-0.0052946	-0.668019	1.08656	0.362949	-0.29846	-0.105341	0.300368	0.302671	0.068788	-0.135569	1.53257	-0.458264	0.144595	-0.709256	0.450561	0.107508	0.503975	0.377387	0.494931	0.651183	0.293896	-0.461907	-0.566947	0.307773	0.576924	-0.044539	0.962509	-0.369771	-0.2961	-0.0616454
protein	1.0105	0.20162	0.74268	0.67632	1.7799	1.7606	1.5616	-1.3663	1.5361	1.0018	1.0947	-0.13998	0.1694	0.90419	-0.4675	0.71016	-0.40165	0.14637	0.16859	0.57705	0.18143	-1.4972	2.6346	0.80667	-0.39974	0.23169	0.11142	0.21533	0.83184	-0.21805	1.9804	-0.2726	0.20391	-0.60179	1.098	-0.015921	0.52545	1.1012	0.76725	1.7808	-0.021315	-0.68267	-0.82121	0.086806	0.57399	0.79363	0.70141	0.24996	0.55307	0.62865
glucose	-0.082396	-0.88883	0.20025	-0.96973	0.43329	0.38338	2.0258	-0.28678	2.3076	1.7451	2.1988	-0.4952	0.45255	-0.17513	-0.20039	1.3674	-0.040873	-0.36738	0.61213	-0.86258	0.043737	-0.28429	1.3799	0.73602	-0.21565	0.41754	1.0625	0.15131	-0.086619	1.082	1.525	0.3088	0.30462	-0.20758	0.65831	-0.10237	0.81558	0.35548	1.3274	1.0424	0.81808	0.059523	-0.67545	0.72366	0.35634	0.71227	1.0838	-0.94149	-0.24353	-0.6404
dna	1.5254	-0.62415	0.46343	0.86997	1.0652	1.6919	0.36667	-0.18018	1.7664	0.68529	0.93934	-0.59654	-0.012565	0.19657	0.57104	0.48641	-0.28174	-1.2343	0.47888	-0.24682	-0.086103	-0.52538	0.81786	0.23602	-0.031694	-0.9552	-0.83327	-0.43082	-0.29061	-1.5646	1.8458	-1.7926	-0.27685	-1.1984	1.0755	0.20317	0.50459	0.82424	0.38877	0.29694	0.12745	-0.33873	0.24523	0.51359	0.66725	-0.48271	1.5093	0.16717	-0.50899	-0.66316
acid	0.9009	-0.60531	-0.66085	-0.6966	-0.33301	1.5834	1.4175	-0.13336	0.75595	1.9965	1.0266	0.27829	0.22465	-0.73563	-0.68329	0.61814	1.1697	0.087963	0.018513	-0.87816	0.19583	-0.29492	2.1029	0.55538	-0.59372	0.1515	0.089391	0.90357	0.13015	0.35314	2.4369	-1.2839	0.29306	-0.1389	1.7339	0.24735	0.40881	-0.89665	1.4681	0.57123	0.47125	-0.23574	-0.5416	-0.55583	1.1156	0.24911	0.73782	-0.050326	0.65584	-0.38483
cell	1.4761	0.42424	1.4387	0.5277	0.68466	1.0248	0.42836	-0.43636	0.93776	0.4999	0.76628	-0.6257	0.11867	0.76455	-0.41856	0.80716	-1.145	-0.075398	0.47328	0.16632	0.25749	-0.41617	0.45851	0.65778	-0.47289	-1.4163	0.4418	-0.25573	0.35258	-0.2884	2.5676	-0.31983	-0.44509	-1.2688	-0.073922	0.001126	0.35743	0.44641	0.26805	0.38776	0.44051	-0.26319	-0.48449	0.78691	1.4343	-0.34328	0.60773	-0.9809	-0.47391	-0.0090641
membrane	1.3573	0.66721	0.3124	0.86606	0.41474	0.98999	2.2146	-0.074692	1.5298	0.21862	1.3858	-0.088649	-0.080556	1.5948	-1.1146	1.7158	0.32514	-0.19045	0.50429	0.109	0.85512	-0.74819	1.0883	0.56333	-0.65976	0.15857	0.6389	1.1886	0.74193	0.020334	1.5413	-0.45279	0.90534	-0.90656	-0.58774	0.57343	0.35929	0.64731	0.17889	1.0352	0.92451	0.016628	-0.36227	0.4313	0.37275	-0.13814	1.2857	-1.1118	-0.53211	-0.55848
nucleus	1.1944	0.4476	0.6137	0.06246	1.4707	1.1407	0.61442	0.86681	0.19413	0.39311	1.8326	-0.16361	0.50293	1.1403	-0.98376	0.42133	0.46818	0.99196	-0.067914	0.46543	-0.8147	-0.98823	0.57802	0.17496	-0.089528	0.038073	0.039188	0.55089	0.028729	-0.66419	1.3897	-0.51226	0.38551	-1.2032	-0.061372	0.48004	-0.0047692	-0.050158	0.71558	-0.041639	0.13202	-1.3639	-0.93377	-0.38466	-0.25751	-0.23493	0.69908	0.22678	-1.2707	-0.26322
aerobic	-0.56773	0.11267	-1.0181	0.32698	-0.13657	-0.687	1.833	-0.20054	1.6277	1.031	1.4613	-0.88228	0.40726	0.8026	-0.060379	-0.061684	0.15257	1.3213	-0.20781	-1.2361	-0.6096	-0.19656	0.86924	-0.29147	0.14634	0.59873	0.69388	-0.21156	0.82436	1.2277	1.3093	0.84591	-0.71025	-0.36386	-0.47613	0.21542	0.71242	1.1899	-0.078333	1.4391	-0.51603	-0.82335	-0.69015	1.0978	1.0255	-0.75748	0.56362	-1.164	-1.0535	1.4766
antibody	1.7061	-0.5641	0.13746	-0.66834	0.42171	1.1922	1.7408	-1.4151	1.4812	2.0958	1.2848	-0.17742	0.32305	0.078567	-1.1435	0.59753	-0.052664	0.046814	-0.62943	-0.28497	-0.24043	-0.51365	0.56991	0.047282	-0.4422	-0.44598	0.67005	0.38312	-1.181	-0.48371	0.13061	-0.060373	0.064253	-1.7438	0.81682	-0.42035	1.3532	0.48747	-0.79826	-0.18019	0.87723	-0.12911	-0.43444	-0.070359	1.2043	0.48738	0.86483	0.063867	0.30217	0.20803
chromosone
helix	0.61299	0.17547	0.33427	0.37325	0.67621	0.69626	0.6916	-0.4613	0.75566	0.68764	0.58063	0.87925	-0.6979	1.5167	-0.80816	-0.15294	0.1496	0.60022	-0.52532	0.11471	0.16428	-1.2156	0.36635	0.14352	-0.22576	0.16797	0.089819	0.532	-0.66348	-0.81991	0.59904	-1.043	0.72145	0.54033	0.32224	-0.10682	0.0077499	-0.33133	0.71186	0.18023	-0.31474	-0.85853	-0.97132	0.44851	-0.72328	-0.73124	1.5718	-0.15697	-0.38934	-0.41058
topics/names.txt	-0.657586	1.00443	-0.768079	0.104	0.192484	0.498112	0.582236	-0.867938	0.130534	0.222776	1.04686	0.16005	-0.135144	0.261708	-0.226228	0.12948	-0.185794	1.02423	-0.319486	0.316928	0.857534	0.161816	0.693612	-0.183948	0.129326	-0.740248	-0.363001	-0.656534	-0.749854	0.0817644	1.00906	-0.870952	-0.481926	-2.09182	0.216222	0.18469	-0.727546	1.66116	1.70164	0.788336	0.0231494	-0.759476	0.19925	0.750164	0.2688	0.31663	1.66102	0.399674	-0.477698	0.083586
biophysics	-0.54596	0.67754	-1.0267	0.53365	0.22034	0.64902	0.91813	-0.57561	0.60437	-0.31991	1.2568	-0.15497	-0.1657	0.28022	-0.36851	-0.0019312	-0.84663	0.96534	-0.10427	0.31457	1.4177	-0.032832	0.57439	-0.088523	-0.61643	-0.42777	0.080379	-0.22508	-0.90795	0.013763	-0.20611	-0.89398	-0.27944	-1.955	-0.24936	0.032938	-1.1324	1.4245	1.781	0.98229	0.19645	-0.68874	0.081864	0.51597	0.2131	-0.3463	1.8733	-0.028331	-0.75124	-0.13376
physics	-0.76028	1.3048	-0.086416	-0.092512	-0.19359	0.10563	0.70074	-0.97941	-0.57269	0.68583	0.91511	0.28773	-0.50195	0.68386	-0.11504	0.07918	0.28243	1.404	-1.0323	-0.1534	0.9346	0.25864	0.53605	-0.44312	0.81973	-1.1146	-0.71439	-0.78889	-1.0154	0.40448	1.5148	-1.1208	-0.94428	-2.2462	0.20003	-0.1727	-0.20429	1.6377	1.3617	1.0111	0.21541	-0.50015	0.26245	0.96734	-0.35057	0.54879	1.5572	0.76885	-0.54687	-0.2338
biology	-0.32519	1.0813	-0.73782	0.087665	0.22888	0.6475	0.13426	-1.5758	0.51152	-0.087914	0.93531	0.20949	0.3495	0.2051	-0.45107	0.13479	-0.19415	0.86683	-0.28273	0.77492	-0.032939	0.0015082	0.59856	0.027327	0.62912	-0.92576	-0.32665	-1.0078	-0.70243	-0.043362	1.7215	-1.0031	-0.41169	-2.1112	0.10656	0.20487	-0.85575	1.4078	1.6879	0.71521	-0.31717	-1.1002	0.483	1.2608	0.68829	0.53763	1.9542	0.44175	-0.3014	0.39389
chemistry	-0.97166	1.3028	-0.87856	-0.033785	0.34052	0.39389	0.39536	-0.55126	-0.45993	0.81382	0.95248	0.37848	-0.27989	0.32066	0.065328	0.36477	0.46413	1.0357	-0.37637	-0.023921	0.9771	0.49375	0.84271	-0.37195	0.17855	-0.66352	-0.85595	-0.52089	-0.38831	0.10169	1.5924	-0.61623	-0.56693	-2.1545	0.63162	0.47784	-0.43869	1.931	1.6746	0.36443	0.095216	-0.68216	0.054844	0.32969	0.39481	0.56079	1.2666	0.71179	-0.2038	0.21542
biochemistry	-0.68484	0.65569	-1.1109	0.024982	0.36627	0.69452	0.76269	-0.65761	0.5694	0.022055	1.1746	0.079522	-0.077682	-0.1813	-0.26185	0.070593	-0.63475	0.84927	0.19824	0.67247	0.99121	0.088013	0.91635	-0.043473	-0.36434	-0.56959	0.001606	-0.74001	-0.73518	-0.067749	0.42272	-0.72065	-0.20729	-1.9922	0.39226	0.3805	-1.0066	1.9048	2.003	0.86865	-0.074159	-0.82613	0.11409	0.67702	0.39837	0.28224	1.6538	0.10431	-0.58518	0.17618
